digraph Tree {
node [shape=box] ;
0 [label="X[6] <= 3982.5425\ngini = 0.0822\nsamples = 1321\nvalue = [2028, 91]"] ;
1 [label="gini = 0.0\nsamples = 1209\nvalue = [1938, 0]"] ;
0 -> 1 [labeldistance=2.5, labelangle=45, headlabel="True"] ;
2 [label="X[3] <= 0.0005\ngini = 0.5\nsamples = 112\nvalue = [90, 91]"] ;
0 -> 2 [labeldistance=2.5, labelangle=-45, headlabel="False"] ;
3 [label="gini = 0.0\nsamples = 42\nvalue = [71, 0]"] ;
2 -> 3 ;
4 [label="X[3] <= 0.0011\ngini = 0.2858\nsamples = 70\nvalue = [19, 91]"] ;
2 -> 4 ;
5 [label="gini = 0.0\nsamples = 58\nvalue = [0, 91]"] ;
4 -> 5 ;
6 [label="gini = 0.0\nsamples = 12\nvalue = [19, 0]"] ;
4 -> 6 ;
}