digraph Tree {
node [shape=box] ;
0 [label="X[4] <= 0.3914\ngini = 0.3397\nsamples = 501\nvalue = [632, 175]"] ;
1 [label="X[4] <= 0.3736\ngini = 0.1791\nsamples = 349\nvalue = [507, 56]"] ;
0 -> 1 [labeldistance=2.5, labelangle=45, headlabel="True"] ;
2 [label="X[0] <= 22.5\ngini = 0.0189\nsamples = 199\nvalue = [311, 3]"] ;
1 -> 2 ;
3 [label="gini = 0.0\nsamples = 127\nvalue = [202, 0]"] ;
2 -> 3 ;
4 [label="X[0] <= 23.5\ngini = 0.0521\nsamples = 72\nvalue = [109, 3]"] ;
2 -> 4 ;
5 [label="X[5] <= 1336.0348\ngini = 0.2778\nsamples = 5\nvalue = [5, 1]"] ;
4 -> 5 ;
6 [label="gini = 0.0\nsamples = 4\nvalue = [5, 0]"] ;
5 -> 6 ;
7 [label="gini = 0.0\nsamples = 1\nvalue = [0, 1]"] ;
5 -> 7 ;
8 [label="X[3] <= 0.0002\ngini = 0.037\nsamples = 67\nvalue = [104, 2]"] ;
4 -> 8 ;
9 [label="gini = 0.0\nsamples = 36\nvalue = [52, 0]"] ;
8 -> 9 ;
10 [label="X[3] <= 0.0002\ngini = 0.0713\nsamples = 31\nvalue = [52, 2]"] ;
8 -> 10 ;
11 [label="gini = 0.0\nsamples = 1\nvalue = [0, 1]"] ;
10 -> 11 ;
12 [label="X[2] <= 0.0002\ngini = 0.037\nsamples = 30\nvalue = [52, 1]"] ;
10 -> 12 ;
13 [label="X[2] <= 0.0002\ngini = 0.2188\nsamples = 5\nvalue = [7, 1]"] ;
12 -> 13 ;
14 [label="gini = 0.0\nsamples = 4\nvalue = [7, 0]"] ;
13 -> 14 ;
15 [label="gini = 0.0\nsamples = 1\nvalue = [0, 1]"] ;
13 -> 15 ;
16 [label="gini = 0.0\nsamples = 25\nvalue = [45, 0]"] ;
12 -> 16 ;
17 [label="X[5] <= 2567.4321\ngini = 0.3351\nsamples = 150\nvalue = [196, 53]"] ;
1 -> 17 ;
18 [label="X[4] <= 0.3752\ngini = 0.0787\nsamples = 119\nvalue = [187, 8]"] ;
17 -> 18 ;
19 [label="X[5] <= 1548.3101\ngini = 0.4688\nsamples = 10\nvalue = [10, 6]"] ;
18 -> 19 ;
20 [label="gini = 0.0\nsamples = 6\nvalue = [8, 0]"] ;
19 -> 20 ;
21 [label="X[0] <= 38.0\ngini = 0.375\nsamples = 4\nvalue = [2, 6]"] ;
19 -> 21 ;
22 [label="gini = 0.0\nsamples = 2\nvalue = [0, 6]"] ;
21 -> 22 ;
23 [label="gini = 0.0\nsamples = 2\nvalue = [2, 0]"] ;
21 -> 23 ;
24 [label="X[2] <= 0.0004\ngini = 0.0221\nsamples = 109\nvalue = [177, 2]"] ;
18 -> 24 ;
25 [label="gini = 0.0\nsamples = 49\nvalue = [80, 0]"] ;
24 -> 25 ;
26 [label="X[2] <= 0.0004\ngini = 0.0396\nsamples = 60\nvalue = [97, 2]"] ;
24 -> 26 ;
27 [label="gini = 0.0\nsamples = 1\nvalue = [0, 1]"] ;
26 -> 27 ;
28 [label="X[1] <= 0.0002\ngini = 0.0202\nsamples = 59\nvalue = [97, 1]"] ;
26 -> 28 ;
29 [label="X[2] <= 0.0011\ngini = 0.1244\nsamples = 9\nvalue = [14, 1]"] ;
28 -> 29 ;
30 [label="gini = 0.0\nsamples = 8\nvalue = [14, 0]"] ;
29 -> 30 ;
31 [label="gini = 0.0\nsamples = 1\nvalue = [0, 1]"] ;
29 -> 31 ;
32 [label="gini = 0.0\nsamples = 50\nvalue = [83, 0]"] ;
28 -> 32 ;
33 [label="X[0] <= 59.5\ngini = 0.2778\nsamples = 31\nvalue = [9, 45]"] ;
17 -> 33 ;
34 [label="X[0] <= 50.5\ngini = 0.1172\nsamples = 27\nvalue = [3, 45]"] ;
33 -> 34 ;
35 [label="X[3] <= 0.0016\ngini = 0.0465\nsamples = 24\nvalue = [1, 41]"] ;
34 -> 35 ;
36 [label="gini = 0.0\nsamples = 23\nvalue = [0, 41]"] ;
35 -> 36 ;
37 [label="gini = 0.0\nsamples = 1\nvalue = [1, 0]"] ;
35 -> 37 ;
38 [label="X[0] <= 51.5\ngini = 0.4444\nsamples = 3\nvalue = [2, 4]"] ;
34 -> 38 ;
39 [label="gini = 0.0\nsamples = 1\nvalue = [2, 0]"] ;
38 -> 39 ;
40 [label="gini = 0.0\nsamples = 2\nvalue = [0, 4]"] ;
38 -> 40 ;
41 [label="gini = 0.0\nsamples = 4\nvalue = [6, 0]"] ;
33 -> 41 ;
42 [label="X[3] <= 0.0013\ngini = 0.4997\nsamples = 152\nvalue = [125, 119]"] ;
0 -> 42 [labeldistance=2.5, labelangle=-45, headlabel="False"] ;
43 [label="X[4] <= 0.4067\ngini = 0.4867\nsamples = 76\nvalue = [54, 75]"] ;
42 -> 43 ;
44 [label="X[0] <= 72.5\ngini = 0.4986\nsamples = 56\nvalue = [50, 45]"] ;
43 -> 44 ;
45 [label="X[3] <= 0.0003\ngini = 0.355\nsamples = 32\nvalue = [12, 40]"] ;
44 -> 45 ;
46 [label="X[3] <= 0.0002\ngini = 0.2188\nsamples = 4\nvalue = [7, 1]"] ;
45 -> 46 ;
47 [label="gini = 0.0\nsamples = 1\nvalue = [0, 1]"] ;
46 -> 47 ;
48 [label="gini = 0.0\nsamples = 3\nvalue = [7, 0]"] ;
46 -> 48 ;
49 [label="X[5] <= 3146.9744\ngini = 0.2014\nsamples = 28\nvalue = [5, 39]"] ;
45 -> 49 ;
50 [label="X[1] <= 0.0002\ngini = 0.4082\nsamples = 4\nvalue = [5, 2]"] ;
49 -> 50 ;
51 [label="gini = 0.0\nsamples = 1\nvalue = [0, 2]"] ;
50 -> 51 ;
52 [label="gini = 0.0\nsamples = 3\nvalue = [5, 0]"] ;
50 -> 52 ;
53 [label="gini = 0.0\nsamples = 24\nvalue = [0, 37]"] ;
49 -> 53 ;
54 [label="X[1] <= 0.0006\ngini = 0.2055\nsamples = 24\nvalue = [38, 5]"] ;
44 -> 54 ;
55 [label="X[4] <= 0.4016\ngini = 0.095\nsamples = 23\nvalue = [38, 2]"] ;
54 -> 55 ;
56 [label="gini = 0.0\nsamples = 17\nvalue = [29, 0]"] ;
55 -> 56 ;
57 [label="X[0] <= 110.5\ngini = 0.2975\nsamples = 6\nvalue = [9, 2]"] ;
55 -> 57 ;
58 [label="gini = 0.0\nsamples = 2\nvalue = [0, 2]"] ;
57 -> 58 ;
59 [label="gini = 0.0\nsamples = 4\nvalue = [9, 0]"] ;
57 -> 59 ;
60 [label="gini = 0.0\nsamples = 1\nvalue = [0, 3]"] ;
54 -> 60 ;
61 [label="X[4] <= 0.4195\ngini = 0.2076\nsamples = 20\nvalue = [4, 30]"] ;
43 -> 61 ;
62 [label="X[2] <= 0.001\ngini = 0.1653\nsamples = 19\nvalue = [3, 30]"] ;
61 -> 62 ;
63 [label="gini = 0.0\nsamples = 11\nvalue = [0, 18]"] ;
62 -> 63 ;
64 [label="X[3] <= 0.0011\ngini = 0.32\nsamples = 8\nvalue = [3, 12]"] ;
62 -> 64 ;
65 [label="gini = 0.0\nsamples = 2\nvalue = [3, 0]"] ;
64 -> 65 ;
66 [label="gini = 0.0\nsamples = 6\nvalue = [0, 12]"] ;
64 -> 66 ;
67 [label="gini = 0.0\nsamples = 1\nvalue = [1, 0]"] ;
61 -> 67 ;
68 [label="X[5] <= 6638.1284\ngini = 0.4724\nsamples = 76\nvalue = [71, 44]"] ;
42 -> 68 ;
69 [label="X[5] <= 3225.6338\ngini = 0.1862\nsamples = 50\nvalue = [69, 8]"] ;
68 -> 69 ;
70 [label="gini = 0.0\nsamples = 29\nvalue = [45, 0]"] ;
69 -> 70 ;
71 [label="X[2] <= 0.0021\ngini = 0.375\nsamples = 21\nvalue = [24, 8]"] ;
69 -> 71 ;
72 [label="X[5] <= 4307.9058\ngini = 0.4628\nsamples = 10\nvalue = [4, 7]"] ;
71 -> 72 ;
73 [label="X[1] <= 0.0002\ngini = 0.5\nsamples = 7\nvalue = [4, 4]"] ;
72 -> 73 ;
74 [label="gini = 0.0\nsamples = 4\nvalue = [0, 4]"] ;
73 -> 74 ;
75 [label="gini = 0.0\nsamples = 3\nvalue = [4, 0]"] ;
73 -> 75 ;
76 [label="gini = 0.0\nsamples = 3\nvalue = [0, 3]"] ;
72 -> 76 ;
77 [label="X[4] <= 0.3974\ngini = 0.0907\nsamples = 11\nvalue = [20, 1]"] ;
71 -> 77 ;
78 [label="gini = 0.0\nsamples = 1\nvalue = [0, 1]"] ;
77 -> 78 ;
79 [label="gini = 0.0\nsamples = 10\nvalue = [20, 0]"] ;
77 -> 79 ;
80 [label="X[1] <= 0.0011\ngini = 0.0997\nsamples = 26\nvalue = [2, 36]"] ;
68 -> 80 ;
81 [label="gini = 0.0\nsamples = 25\nvalue = [0, 36]"] ;
80 -> 81 ;
82 [label="gini = 0.0\nsamples = 1\nvalue = [2, 0]"] ;
80 -> 82 ;
}