digraph Tree {
node [shape=box] ;
0 [label="X[2] <= 0.015\ngini = 0.1635\nsamples = 3806\nvalue = [5461, 539]"] ;
1 [label="X[5] <= 19637.5781\ngini = 0.0004\nsamples = 3454\nvalue = [5456, 1]"] ;
0 -> 1 [labeldistance=2.5, labelangle=45, headlabel="True"] ;
2 [label="gini = 0.0\nsamples = 3420\nvalue = [5394, 0]"] ;
1 -> 2 ;
3 [label="X[4] <= 0.3267\ngini = 0.0312\nsamples = 34\nvalue = [62, 1]"] ;
1 -> 3 ;
4 [label="gini = 0.0\nsamples = 1\nvalue = [0, 1]"] ;
3 -> 4 ;
5 [label="gini = 0.0\nsamples = 33\nvalue = [62, 0]"] ;
3 -> 5 ;
6 [label="X[5] <= 14419.1445\ngini = 0.0182\nsamples = 352\nvalue = [5, 538]"] ;
0 -> 6 [labeldistance=2.5, labelangle=-45, headlabel="False"] ;
7 [label="gini = 0.0\nsamples = 1\nvalue = [1, 0]"] ;
6 -> 7 ;
8 [label="X[5] <= 19331.0586\ngini = 0.0147\nsamples = 351\nvalue = [4, 538]"] ;
6 -> 8 ;
9 [label="X[2] <= 0.016\ngini = 0.1913\nsamples = 17\nvalue = [3, 25]"] ;
8 -> 9 ;
10 [label="X[0] <= 21.0\ngini = 0.5\nsamples = 4\nvalue = [3, 3]"] ;
9 -> 10 ;
11 [label="gini = 0.0\nsamples = 2\nvalue = [3, 0]"] ;
10 -> 11 ;
12 [label="gini = 0.0\nsamples = 2\nvalue = [0, 3]"] ;
10 -> 12 ;
13 [label="gini = 0.0\nsamples = 13\nvalue = [0, 22]"] ;
9 -> 13 ;
14 [label="X[4] <= 0.3291\ngini = 0.0039\nsamples = 334\nvalue = [1, 513]"] ;
8 -> 14 ;
15 [label="X[5] <= 22382.5352\ngini = 0.1528\nsamples = 8\nvalue = [1, 11]"] ;
14 -> 15 ;
16 [label="gini = 0.0\nsamples = 7\nvalue = [0, 11]"] ;
15 -> 16 ;
17 [label="gini = 0.0\nsamples = 1\nvalue = [1, 0]"] ;
15 -> 17 ;
18 [label="gini = 0.0\nsamples = 326\nvalue = [0, 502]"] ;
14 -> 18 ;
}