digraph Tree {
node [shape=box] ;
0 [label="X[3] <= 0.0006\ngini = 0.3238\nsamples = 515\nvalue = [643, 164]"] ;
1 [label="X[2] <= 0.0002\ngini = 0.1431\nsamples = 293\nvalue = [428, 36]"] ;
0 -> 1 [labeldistance=2.5, labelangle=45, headlabel="True"] ;
2 [label="X[1] <= 0.0002\ngini = 0.0518\nsamples = 166\nvalue = [256, 7]"] ;
1 -> 2 ;
3 [label="gini = 0.0\nsamples = 116\nvalue = [183, 0]"] ;
2 -> 3 ;
4 [label="X[5] <= 2111.603\ngini = 0.1597\nsamples = 50\nvalue = [73, 7]"] ;
2 -> 4 ;
5 [label="gini = 0.0\nsamples = 47\nvalue = [73, 0]"] ;
4 -> 5 ;
6 [label="gini = 0.0\nsamples = 3\nvalue = [0, 7]"] ;
4 -> 6 ;
7 [label="X[5] <= 3045.4824\ngini = 0.2469\nsamples = 127\nvalue = [172, 29]"] ;
1 -> 7 ;
8 [label="X[5] <= 2189.9063\ngini = 0.0689\nsamples = 105\nvalue = [162, 6]"] ;
7 -> 8 ;
9 [label="X[5] <= 1808.5217\ngini = 0.0133\nsamples = 93\nvalue = [148, 1]"] ;
8 -> 9 ;
10 [label="gini = 0.0\nsamples = 87\nvalue = [138, 0]"] ;
9 -> 10 ;
11 [label="X[0] <= 33.0\ngini = 0.1653\nsamples = 6\nvalue = [10, 1]"] ;
9 -> 11 ;
12 [label="gini = 0.0\nsamples = 1\nvalue = [0, 1]"] ;
11 -> 12 ;
13 [label="gini = 0.0\nsamples = 5\nvalue = [10, 0]"] ;
11 -> 13 ;
14 [label="X[0] <= 38.5\ngini = 0.3878\nsamples = 12\nvalue = [14, 5]"] ;
8 -> 14 ;
15 [label="gini = 0.0\nsamples = 3\nvalue = [0, 5]"] ;
14 -> 15 ;
16 [label="gini = 0.0\nsamples = 9\nvalue = [14, 0]"] ;
14 -> 16 ;
17 [label="X[1] <= 0.0004\ngini = 0.4224\nsamples = 22\nvalue = [10, 23]"] ;
7 -> 17 ;
18 [label="X[4] <= 0.4055\ngini = 0.0907\nsamples = 14\nvalue = [1, 20]"] ;
17 -> 18 ;
19 [label="gini = 0.0\nsamples = 13\nvalue = [0, 20]"] ;
18 -> 19 ;
20 [label="gini = 0.0\nsamples = 1\nvalue = [1, 0]"] ;
18 -> 20 ;
21 [label="X[0] <= 115.5\ngini = 0.375\nsamples = 8\nvalue = [9, 3]"] ;
17 -> 21 ;
22 [label="X[5] <= 10719.793\ngini = 0.48\nsamples = 4\nvalue = [2, 3]"] ;
21 -> 22 ;
23 [label="gini = 0.0\nsamples = 2\nvalue = [2, 0]"] ;
22 -> 23 ;
24 [label="gini = 0.0\nsamples = 2\nvalue = [0, 3]"] ;
22 -> 24 ;
25 [label="gini = 0.0\nsamples = 4\nvalue = [7, 0]"] ;
21 -> 25 ;
26 [label="X[4] <= 0.4073\ngini = 0.4678\nsamples = 222\nvalue = [215, 128]"] ;
0 -> 26 [labeldistance=2.5, labelangle=-45, headlabel="False"] ;
27 [label="X[1] <= 0.0003\ngini = 0.3557\nsamples = 161\nvalue = [196, 59]"] ;
26 -> 27 ;
28 [label="X[1] <= 0.0002\ngini = 0.435\nsamples = 94\nvalue = [100, 47]"] ;
27 -> 28 ;
29 [label="X[5] <= 1522.043\ngini = 0.0868\nsamples = 27\nvalue = [42, 2]"] ;
28 -> 29 ;
30 [label="gini = 0.0\nsamples = 25\nvalue = [42, 0]"] ;
29 -> 30 ;
31 [label="gini = 0.0\nsamples = 2\nvalue = [0, 2]"] ;
29 -> 31 ;
32 [label="X[5] <= 2526.0483\ngini = 0.492\nsamples = 67\nvalue = [58, 45]"] ;
28 -> 32 ;
33 [label="gini = 0.0\nsamples = 33\nvalue = [52, 0]"] ;
32 -> 33 ;
34 [label="X[3] <= 0.0017\ngini = 0.2076\nsamples = 34\nvalue = [6, 45]"] ;
32 -> 34 ;
35 [label="gini = 0.0\nsamples = 25\nvalue = [0, 38]"] ;
34 -> 35 ;
36 [label="X[2] <= 0.0018\ngini = 0.497\nsamples = 9\nvalue = [6, 7]"] ;
34 -> 36 ;
37 [label="X[1] <= 0.0002\ngini = 0.4444\nsamples = 6\nvalue = [6, 3]"] ;
36 -> 37 ;
38 [label="X[0] <= 43.0\ngini = 0.4444\nsamples = 2\nvalue = [1, 2]"] ;
37 -> 38 ;
39 [label="gini = 0.0\nsamples = 1\nvalue = [1, 0]"] ;
38 -> 39 ;
40 [label="gini = 0.0\nsamples = 1\nvalue = [0, 2]"] ;
38 -> 40 ;
41 [label="X[2] <= 0.0018\ngini = 0.2778\nsamples = 4\nvalue = [5, 1]"] ;
37 -> 41 ;
42 [label="X[1] <= 0.0003\ngini = 0.5\nsamples = 2\nvalue = [1, 1]"] ;
41 -> 42 ;
43 [label="gini = 0.0\nsamples = 1\nvalue = [0, 1]"] ;
42 -> 43 ;
44 [label="gini = 0.0\nsamples = 1\nvalue = [1, 0]"] ;
42 -> 44 ;
45 [label="gini = 0.0\nsamples = 2\nvalue = [4, 0]"] ;
41 -> 45 ;
46 [label="gini = 0.0\nsamples = 3\nvalue = [0, 4]"] ;
36 -> 46 ;
47 [label="X[4] <= 0.401\ngini = 0.1975\nsamples = 67\nvalue = [96, 12]"] ;
27 -> 47 ;
48 [label="X[0] <= 62.5\ngini = 0.0973\nsamples = 45\nvalue = [74, 4]"] ;
47 -> 48 ;
49 [label="gini = 0.0\nsamples = 2\nvalue = [0, 2]"] ;
48 -> 49 ;
50 [label="X[4] <= 0.3993\ngini = 0.0512\nsamples = 43\nvalue = [74, 2]"] ;
48 -> 50 ;
51 [label="X[5] <= 7569.7324\ngini = 0.029\nsamples = 37\nvalue = [67, 1]"] ;
50 -> 51 ;
52 [label="gini = 0.0\nsamples = 35\nvalue = [66, 0]"] ;
51 -> 52 ;
53 [label="X[3] <= 0.0019\ngini = 0.5\nsamples = 2\nvalue = [1, 1]"] ;
51 -> 53 ;
54 [label="gini = 0.0\nsamples = 1\nvalue = [1, 0]"] ;
53 -> 54 ;
55 [label="gini = 0.0\nsamples = 1\nvalue = [0, 1]"] ;
53 -> 55 ;
56 [label="X[2] <= 0.0014\ngini = 0.2188\nsamples = 6\nvalue = [7, 1]"] ;
50 -> 56 ;
57 [label="X[5] <= 5303.9766\ngini = 0.4444\nsamples = 2\nvalue = [2, 1]"] ;
56 -> 57 ;
58 [label="gini = 0.0\nsamples = 1\nvalue = [2, 0]"] ;
57 -> 58 ;
59 [label="gini = 0.0\nsamples = 1\nvalue = [0, 1]"] ;
57 -> 59 ;
60 [label="gini = 0.0\nsamples = 4\nvalue = [5, 0]"] ;
56 -> 60 ;
61 [label="X[1] <= 0.0004\ngini = 0.3911\nsamples = 22\nvalue = [22, 8]"] ;
47 -> 61 ;
62 [label="gini = 0.0\nsamples = 4\nvalue = [0, 6]"] ;
61 -> 62 ;
63 [label="X[5] <= 5392.5088\ngini = 0.1528\nsamples = 18\nvalue = [22, 2]"] ;
61 -> 63 ;
64 [label="gini = 0.0\nsamples = 16\nvalue = [22, 0]"] ;
63 -> 64 ;
65 [label="gini = 0.0\nsamples = 2\nvalue = [0, 2]"] ;
63 -> 65 ;
66 [label="X[5] <= 6638.1284\ngini = 0.3386\nsamples = 61\nvalue = [19, 69]"] ;
26 -> 66 ;
67 [label="X[2] <= 0.0015\ngini = 0.2449\nsamples = 16\nvalue = [18, 3]"] ;
66 -> 67 ;
68 [label="gini = 0.0\nsamples = 3\nvalue = [0, 3]"] ;
67 -> 68 ;
69 [label="gini = 0.0\nsamples = 13\nvalue = [18, 0]"] ;
67 -> 69 ;
70 [label="X[4] <= 0.4534\ngini = 0.0294\nsamples = 45\nvalue = [1, 66]"] ;
66 -> 70 ;
71 [label="gini = 0.0\nsamples = 43\nvalue = [0, 65]"] ;
70 -> 71 ;
72 [label="X[4] <= 0.4792\ngini = 0.5\nsamples = 2\nvalue = [1, 1]"] ;
70 -> 72 ;
73 [label="gini = 0.0\nsamples = 1\nvalue = [1, 0]"] ;
72 -> 73 ;
74 [label="gini = 0.0\nsamples = 1\nvalue = [0, 1]"] ;
72 -> 74 ;
}