digraph Tree {
node [shape=box] ;
0 [label="X[4] <= 0.0\ngini = 0.1229\nsamples = 243\nvalue = [355, 25]"] ;
1 [label="gini = 0.0\nsamples = 231\nvalue = [355, 0]"] ;
0 -> 1 [labeldistance=2.5, labelangle=45, headlabel="True"] ;
2 [label="gini = 0.0\nsamples = 12\nvalue = [0, 25]"] ;
0 -> 2 [labeldistance=2.5, labelangle=-45, headlabel="False"] ;
}