digraph Tree {
node [shape=box] ;
0 [label="X[5] <= 0.3762\ngini = 0.0148\nsamples = 260\nvalue = [400, 3]"] ;
1 [label="gini = 0.0\nsamples = 257\nvalue = [399, 0]"] ;
0 -> 1 [labeldistance=2.5, labelangle=45, headlabel="True"] ;
2 [label="X[1] <= 0.0003\ngini = 0.375\nsamples = 3\nvalue = [1, 3]"] ;
0 -> 2 [labeldistance=2.5, labelangle=-45, headlabel="False"] ;
3 [label="gini = 0.0\nsamples = 2\nvalue = [0, 3]"] ;
2 -> 3 ;
4 [label="gini = 0.0\nsamples = 1\nvalue = [1, 0]"] ;
2 -> 4 ;
}