digraph Tree {
node [shape=box] ;
0 [label="X[0] <= 22.5\nentropy = 0.4503\nsamples = 5000\nvalue = [4529, 471]"] ;
1 [label="X[0] <= 21.5\nentropy = 0.003\nsamples = 4530\nvalue = [4529, 1]"] ;
0 -> 1 [labeldistance=2.5, labelangle=45, headlabel="True"] ;
2 [label="entropy = 0.0\nsamples = 4524\nvalue = [4524, 0]"] ;
1 -> 2 ;
3 [label="X[2] <= 0.0163\nentropy = 0.65\nsamples = 6\nvalue = [5, 1]"] ;
1 -> 3 ;
4 [label="X[1] <= 0.0001\nentropy = 1.0\nsamples = 2\nvalue = [1, 1]"] ;
3 -> 4 ;
5 [label="entropy = 0.0\nsamples = 1\nvalue = [0, 1]"] ;
4 -> 5 ;
6 [label="entropy = 0.0\nsamples = 1\nvalue = [1, 0]"] ;
4 -> 6 ;
7 [label="entropy = 0.0\nsamples = 4\nvalue = [4, 0]"] ;
3 -> 7 ;
8 [label="entropy = 0.0\nsamples = 470\nvalue = [0, 470]"] ;
0 -> 8 [labeldistance=2.5, labelangle=-45, headlabel="False"] ;
}